<?xml version="1.0"?>
<opencv_storage>
<cascade>
  <stageType>BOOST</stageType>
  <featureType>HAAR</featureType>
  <height>32</height>
  <width>32</width>
  <stageParams>
    <boostType>GAB</boostType>
    <minHitRate>9.9900001287460327e-001</minHitRate>
    <maxFalseAlarm>5.0000000000000000e-001</maxFalseAlarm>
    <weightTrimRate>9.4999998807907104e-001</weightTrimRate>
    <maxDepth>1</maxDepth>
    <maxWeakCount>100</maxWeakCount></stageParams>
  <featureParams>
    <maxCatCount>0</maxCatCount>
    <featSize>1</featSize>
    <mode>BASIC</mode></featureParams>
  <stageNum>12</stageNum>
  <stages>
    <!-- stage 0 -->
    <_>
      <maxWeakCount>2</maxWeakCount>
      <stageThreshold>-6.3695430755615234e-002</stageThreshold>
      <weakClassifiers>
        <_>
          <internalNodes>
            0 -1 18 -9.4479337334632874e-002</internalNodes>
          <leafValues>
            9.4719469547271729e-001 -9.9512195587158203e-001</leafValues></_>
        <_>
          <internalNodes>
            0 -1 2 -2.7809780836105347e-001</internalNodes>
          <leafValues>
            9.3142652511596680e-001 -9.7709786891937256e-001</leafValues></_></weakClassifiers></_>
    <!-- stage 1 -->
    <_>
      <maxWeakCount>2</maxWeakCount>
      <stageThreshold>-5.2527811378240585e-002</stageThreshold>
      <weakClassifiers>
        <_>
          <internalNodes>
            0 -1 29 -4.5281380414962769e-002</internalNodes>
          <leafValues>
            9.3212670087814331e-001 -8.5287356376647949e-001</leafValues></_>
        <_>
          <internalNodes>
            0 -1 20 -1.3461494445800781e-001</internalNodes>
          <leafValues>
            8.0497562885284424e-001 -9.8465448617935181e-001</leafValues></_></weakClassifiers></_>
    <!-- stage 2 -->
    <_>
      <maxWeakCount>2</maxWeakCount>
      <stageThreshold>-1.3129724562168121e-001</stageThreshold>
      <weakClassifiers>
        <_>
          <internalNodes>
            0 -1 3 -6.9259598851203918e-002</internalNodes>
          <leafValues>
            8.7486743927001953e-001 -9.8936170339584351e-001</leafValues></_>
        <_>
          <internalNodes>
            0 -1 31 -7.2833180427551270e-002</internalNodes>
          <leafValues>
            8.5806447267532349e-001 -9.0577143430709839e-001</leafValues></_></weakClassifiers></_>
    <!-- stage 3 -->
    <_>
      <maxWeakCount>2</maxWeakCount>
      <stageThreshold>-1.7993596196174622e-001</stageThreshold>
      <weakClassifiers>
        <_>
          <internalNodes>
            0 -1 30 -1.1371959000825882e-002</internalNodes>
          <leafValues>
            8.1089413166046143e-001 -9.7109824419021606e-001</leafValues></_>
        <_>
          <internalNodes>
            0 -1 40 8.5938759148120880e-003</internalNodes>
          <leafValues>
            -8.4796261787414551e-001 7.9116231203079224e-001</leafValues></_></weakClassifiers></_>
    <!-- stage 4 -->
    <_>
      <maxWeakCount>2</maxWeakCount>
      <stageThreshold>-2.4400468170642853e-001</stageThreshold>
      <weakClassifiers>
        <_>
          <internalNodes>
            0 -1 17 -2.3822261020541191e-002</internalNodes>
          <leafValues>
            8.4533900022506714e-001 -9.2000001668930054e-001</leafValues></_>
        <_>
          <internalNodes>
            0 -1 7 -8.3628483116626740e-003</internalNodes>
          <leafValues>
            6.7599529027938843e-001 -9.7113007307052612e-001</leafValues></_></weakClassifiers></_>
    <!-- stage 5 -->
    <_>
      <maxWeakCount>5</maxWeakCount>
      <stageThreshold>-1.3290312290191650e+000</stageThreshold>
      <weakClassifiers>
        <_>
          <internalNodes>
            0 -1 15 -3.2284224871546030e-003</internalNodes>
          <leafValues>
            7.1539962291717529e-001 -9.5904439687728882e-001</leafValues></_>
        <_>
          <internalNodes>
            0 -1 12 -1.8757718801498413e-001</internalNodes>
          <leafValues>
            6.0007536411285400e-001 -9.4593030214309692e-001</leafValues></_>
        <_>
          <internalNodes>
            0 -1 4 3.5312581807374954e-002</internalNodes>
          <leafValues>
            -9.6835154294967651e-001 5.1627188920974731e-001</leafValues></_>
        <_>
          <internalNodes>
            0 -1 38 -2.1853886544704437e-002</internalNodes>
          <leafValues>
            7.2258400917053223e-001 -6.8782210350036621e-001</leafValues></_>
        <_>
          <internalNodes>
            0 -1 6 -4.9371670931577682e-002</internalNodes>
          <leafValues>
            6.8611145019531250e-001 -7.7397382259368896e-001</leafValues></_></weakClassifiers></_>
    <!-- stage 6 -->
    <_>
      <maxWeakCount>3</maxWeakCount>
      <stageThreshold>-6.2400287389755249e-001</stageThreshold>
      <weakClassifiers>
        <_>
          <internalNodes>
            0 -1 36 -5.2974559366703033e-002</internalNodes>
          <leafValues>
            8.7576127052307129e-001 -5.3413653373718262e-001</leafValues></_>
        <_>
          <internalNodes>
            0 -1 13 -3.1381115317344666e-002</internalNodes>
          <leafValues>
            8.0971688032150269e-001 -6.7518383264541626e-001</leafValues></_>
        <_>
          <internalNodes>
            0 -1 23 -1.4684382826089859e-002</internalNodes>
          <leafValues>
            6.7836511135101318e-001 -8.2458031177520752e-001</leafValues></_></weakClassifiers></_>
    <!-- stage 7 -->
    <_>
      <maxWeakCount>6</maxWeakCount>
      <stageThreshold>-7.4854838848114014e-001</stageThreshold>
      <weakClassifiers>
        <_>
          <internalNodes>
            0 -1 26 2.4794630706310272e-002</internalNodes>
          <leafValues>
            -8.3333331346511841e-001 7.0804369449615479e-001</leafValues></_>
        <_>
          <internalNodes>
            0 -1 9 3.4077387303113937e-002</internalNodes>
          <leafValues>
            -8.0243963003158569e-001 6.5994471311569214e-001</leafValues></_>
        <_>
          <internalNodes>
            0 -1 34 -4.7032125294208527e-003</internalNodes>
          <leafValues>
            5.7926845550537109e-001 -8.0519288778305054e-001</leafValues></_>
        <_>
          <internalNodes>
            0 -1 24 -8.2742623984813690e-002</internalNodes>
          <leafValues>
            4.9413111805915833e-001 -9.6176260709762573e-001</leafValues></_>
        <_>
          <internalNodes>
            0 -1 39 2.1370638161897659e-002</internalNodes>
          <leafValues>
            -7.4722051620483398e-001 5.7964444160461426e-001</leafValues></_>
        <_>
          <internalNodes>
            0 -1 19 -3.3983737230300903e-002</internalNodes>
          <leafValues>
            6.2400090694427490e-001 -7.7231007814407349e-001</leafValues></_></weakClassifiers></_>
    <!-- stage 8 -->
    <_>
      <maxWeakCount>4</maxWeakCount>
      <stageThreshold>-1.2453027963638306e+000</stageThreshold>
      <weakClassifiers>
        <_>
          <internalNodes>
            0 -1 1 -1.7356923222541809e-001</internalNodes>
          <leafValues>
            7.0514065027236938e-001 -9.5138889551162720e-001</leafValues></_>
        <_>
          <internalNodes>
            0 -1 10 -1.3626142404973507e-002</internalNodes>
          <leafValues>
            9.1040074825286865e-001 -5.0614130496978760e-001</leafValues></_>
        <_>
          <internalNodes>
            0 -1 11 -9.5171206339728087e-005</internalNodes>
          <leafValues>
            -8.7013208866119385e-001 4.8278263211250305e-001</leafValues></_>
        <_>
          <internalNodes>
            0 -1 35 -1.4776652678847313e-002</internalNodes>
          <leafValues>
            6.4518135786056519e-001 -5.7417005300521851e-001</leafValues></_></weakClassifiers></_>
    <!-- stage 9 -->
    <_>
      <maxWeakCount>5</maxWeakCount>
      <stageThreshold>-1.0966666936874390e+000</stageThreshold>
      <weakClassifiers>
        <_>
          <internalNodes>
            0 -1 22 4.4424078078009188e-004</internalNodes>
          <leafValues>
            -6.4804470539093018e-001 7.1279919147491455e-001</leafValues></_>
        <_>
          <internalNodes>
            0 -1 33 -8.9943670900538564e-004</internalNodes>
          <leafValues>
            4.7766396403312683e-001 -9.3993514776229858e-001</leafValues></_>
        <_>
          <internalNodes>
            0 -1 28 2.2198818624019623e-003</internalNodes>
          <leafValues>
            -5.7651174068450928e-001 6.5630054473876953e-001</leafValues></_>
        <_>
          <internalNodes>
            0 -1 5 -7.0728780701756477e-003</internalNodes>
          <leafValues>
            4.6467432379722595e-001 -8.2567226886749268e-001</leafValues></_>
        <_>
          <internalNodes>
            0 -1 8 2.9592566192150116e-002</internalNodes>
          <leafValues>
            -7.5691419839859009e-001 5.1422202587127686e-001</leafValues></_></weakClassifiers></_>
    <!-- stage 10 -->
    <_>
      <maxWeakCount>6</maxWeakCount>
      <stageThreshold>-9.0455162525177002e-001</stageThreshold>
      <weakClassifiers>
        <_>
          <internalNodes>
            0 -1 21 -1.0465251654386520e-001</internalNodes>
          <leafValues>
            6.5504240989685059e-001 -9.3798446655273438e-001</leafValues></_>
        <_>
          <internalNodes>
            0 -1 32 1.1685946956276894e-003</internalNodes>
          <leafValues>
            -8.6580884456634521e-001 5.0744265317916870e-001</leafValues></_>
        <_>
          <internalNodes>
            0 -1 37 -4.2911697179079056e-002</internalNodes>
          <leafValues>
            5.8481061458587646e-001 -7.2680598497390747e-001</leafValues></_>
        <_>
          <internalNodes>
            0 -1 16 5.0707519985735416e-003</internalNodes>
          <leafValues>
            -7.5296419858932495e-001 5.7421576976776123e-001</leafValues></_>
        <_>
          <internalNodes>
            0 -1 0 -3.5266488790512085e-001</internalNodes>
          <leafValues>
            4.3174096941947937e-001 -8.9266252517700195e-001</leafValues></_>
        <_>
          <internalNodes>
            0 -1 14 -1.9136711955070496e-001</internalNodes>
          <leafValues>
            6.3565433025360107e-001 -5.9302997589111328e-001</leafValues></_></weakClassifiers></_>
    <!-- stage 11 -->
    <_>
      <maxWeakCount>2</maxWeakCount>
      <stageThreshold>-2.0725913345813751e-001</stageThreshold>
      <weakClassifiers>
        <_>
          <internalNodes>
            0 -1 27 -4.1175880469381809e-003</internalNodes>
          <leafValues>
            6.5730339288711548e-001 -9.9203187227249146e-001</leafValues></_>
        <_>
          <internalNodes>
            0 -1 25 8.1899575889110565e-003</internalNodes>
          <leafValues>
            -5.0897550582885742e-001 7.8477275371551514e-001</leafValues></_></weakClassifiers></_></stages>
  <features>
    <_>
      <rects>
        <_>
          0 8 30 20 -1.</_>
        <_>
          15 8 15 20 2.</_></rects>
      <tilted>0</tilted></_>
    <_>
      <rects>
        <_>
          2 6 20 21 -1.</_>
        <_>
          12 6 10 21 2.</_></rects>
      <tilted>0</tilted></_>
    <_>
      <rects>
        <_>
          2 7 26 19 -1.</_>
        <_>
          15 7 13 19 2.</_></rects>
      <tilted>0</tilted></_>
    <_>
      <rects>
        <_>
          3 9 12 15 -1.</_>
        <_>
          9 9 6 15 2.</_></rects>
      <tilted>0</tilted></_>
    <_>
      <rects>
        <_>
          3 18 15 10 -1.</_>
        <_>
          3 23 15 5 2.</_></rects>
      <tilted>0</tilted></_>
    <_>
      <rects>
        <_>
          5 3 4 20 -1.</_>
        <_>
          7 3 2 20 2.</_></rects>
      <tilted>0</tilted></_>
    <_>
      <rects>
        <_>
          5 8 20 4 -1.</_>
        <_>
          15 8 10 4 2.</_></rects>
      <tilted>0</tilted></_>
    <_>
      <rects>
        <_>
          6 11 4 14 -1.</_>
        <_>
          8 11 2 14 2.</_></rects>
      <tilted>0</tilted></_>
    <_>
      <rects>
        <_>
          6 23 20 8 -1.</_>
        <_>
          6 23 10 4 2.</_>
        <_>
          16 27 10 4 2.</_></rects>
      <tilted>0</tilted></_>
    <_>
      <rects>
        <_>
          7 7 22 10 -1.</_>
        <_>
          7 7 11 5 2.</_>
        <_>
          18 12 11 5 2.</_></rects>
      <tilted>0</tilted></_>
    <_>
      <rects>
        <_>
          7 19 12 4 -1.</_>
        <_>
          7 19 6 2 2.</_>
        <_>
          13 21 6 2 2.</_></rects>
      <tilted>0</tilted></_>
    <_>
      <rects>
        <_>
          8 5 6 1 -1.</_>
        <_>
          11 5 3 1 2.</_></rects>
      <tilted>0</tilted></_>
    <_>
      <rects>
        <_>
          8 6 20 22 -1.</_>
        <_>
          18 6 10 22 2.</_></rects>
      <tilted>0</tilted></_>
    <_>
      <rects>
        <_>
          8 16 14 8 -1.</_>
        <_>
          8 16 7 4 2.</_>
        <_>
          15 20 7 4 2.</_></rects>
      <tilted>0</tilted></_>
    <_>
      <rects>
        <_>
          9 5 8 27 -1.</_>
        <_>
          9 14 8 9 3.</_></rects>
      <tilted>0</tilted></_>
    <_>
      <rects>
        <_>
          9 15 6 7 -1.</_>
        <_>
          11 15 2 7 3.</_></rects>
      <tilted>0</tilted></_>
    <_>
      <rects>
        <_>
          10 14 12 4 -1.</_>
        <_>
          14 14 4 4 3.</_></rects>
      <tilted>0</tilted></_>
    <_>
      <rects>
        <_>
          10 16 14 10 -1.</_>
        <_>
          10 16 7 5 2.</_>
        <_>
          17 21 7 5 2.</_></rects>
      <tilted>0</tilted></_>
    <_>
      <rects>
        <_>
          11 3 5 27 -1.</_>
        <_>
          11 12 5 9 3.</_></rects>
      <tilted>0</tilted></_>
    <_>
      <rects>
        <_>
          11 5 2 21 -1.</_>
        <_>
          11 12 2 7 3.</_></rects>
      <tilted>0</tilted></_>
    <_>
      <rects>
        <_>
          12 1 8 30 -1.</_>
        <_>
          12 11 8 10 3.</_></rects>
      <tilted>0</tilted></_>
    <_>
      <rects>
        <_>
          12 2 7 27 -1.</_>
        <_>
          12 11 7 9 3.</_></rects>
      <tilted>0</tilted></_>
    <_>
      <rects>
        <_>
          12 11 2 8 -1.</_>
        <_>
          12 11 1 4 2.</_>
        <_>
          13 15 1 4 2.</_></rects>
      <tilted>0</tilted></_>
    <_>
      <rects>
        <_>
          13 3 16 6 -1.</_>
        <_>
          13 6 16 3 2.</_></rects>
      <tilted>0</tilted></_>
    <_>
      <rects>
        <_>
          13 4 12 26 -1.</_>
        <_>
          19 4 6 26 2.</_></rects>
      <tilted>0</tilted></_>
    <_>
      <rects>
        <_>
          13 16 7 6 -1.</_>
        <_>
          13 18 7 2 3.</_></rects>
      <tilted>0</tilted></_>
    <_>
      <rects>
        <_>
          13 21 8 8 -1.</_>
        <_>
          13 25 8 4 2.</_></rects>
      <tilted>0</tilted></_>
    <_>
      <rects>
        <_>
          14 9 8 9 -1.</_>
        <_>
          18 9 4 9 2.</_></rects>
      <tilted>0</tilted></_>
    <_>
      <rects>
        <_>
          14 15 4 9 -1.</_>
        <_>
          14 18 4 3 3.</_></rects>
      <tilted>0</tilted></_>
    <_>
      <rects>
        <_>
          15 16 13 15 -1.</_>
        <_>
          15 21 13 5 3.</_></rects>
      <tilted>0</tilted></_>
    <_>
      <rects>
        <_>
          16 10 10 7 -1.</_>
        <_>
          21 10 5 7 2.</_></rects>
      <tilted>0</tilted></_>
    <_>
      <rects>
        <_>
          17 1 15 31 -1.</_>
        <_>
          22 1 5 31 3.</_></rects>
      <tilted>0</tilted></_>
    <_>
      <rects>
        <_>
          19 10 3 15 -1.</_>
        <_>
          19 15 3 5 3.</_></rects>
      <tilted>0</tilted></_>
    <_>
      <rects>
        <_>
          21 12 4 3 -1.</_>
        <_>
          23 12 2 3 2.</_></rects>
      <tilted>0</tilted></_>
    <_>
      <rects>
        <_>
          21 19 6 8 -1.</_>
        <_>
          24 19 3 8 2.</_></rects>
      <tilted>0</tilted></_>
    <_>
      <rects>
        <_>
          22 6 6 14 -1.</_>
        <_>
          25 6 3 14 2.</_></rects>
      <tilted>0</tilted></_>
    <_>
      <rects>
        <_>
          23 6 9 20 -1.</_>
        <_>
          26 6 3 20 3.</_></rects>
      <tilted>0</tilted></_>
    <_>
      <rects>
        <_>
          23 12 9 12 -1.</_>
        <_>
          26 12 3 12 3.</_></rects>
      <tilted>0</tilted></_>
    <_>
      <rects>
        <_>
          23 16 9 5 -1.</_>
        <_>
          26 16 3 5 3.</_></rects>
      <tilted>0</tilted></_>
    <_>
      <rects>
        <_>
          28 8 4 15 -1.</_>
        <_>
          30 8 2 15 2.</_></rects>
      <tilted>0</tilted></_>
    <_>
      <rects>
        <_>
          28 12 4 9 -1.</_>
        <_>
          30 12 2 9 2.</_></rects>
      <tilted>0</tilted></_></features></cascade>
</opencv_storage>
